<?xml version="1.0"?>
<opencv_storage>
<cascade>
  <stageType>BOOST</stageType>
  <featureType>HAAR</featureType>
  <height>24</height>
  <width>24</width>
  <stageParams>
    <boostType>GAB</boostType>
    <minHitRate>9.9500000476837158e-01</minHitRate>
    <maxFalseAlarm>5.0000000000000000e-01</maxFalseAlarm>
    <weightTrimRate>9.4999999999999996e-01</weightTrimRate>
    <maxDepth>1</maxDepth>
    <maxWeakCount>100</maxWeakCount></stageParams>
  <featureParams>
    <maxCatCount>0</maxCatCount>
    <featSize>1</featSize>
    <mode>BASIC</mode></featureParams>
  <stageNum>12</stageNum>
  <stages>
    <!-- stage 0 -->
    <_>
      <maxWeakCount>3</maxWeakCount>
      <stageThreshold>-9.4587230682373047e-01</stageThreshold>
      <weakClassifiers>
        <_>
          <internalNodes>
            0 -1 42 8.7930649518966675e-02</internalNodes>
          <leafValues>
            -7.9356062412261963e-01 9.4641935825347900e-01</leafValues></_>
        <_>
          <internalNodes>
            0 -1 34 -2.7619251981377602e-02</internalNodes>
          <leafValues>
            6.9886034727096558e-01 -7.2519057989120483e-01</leafValues></_>
        <_>
          <internalNodes>
            0 -1 27 -3.9709702134132385e-02</internalNodes>
          <leafValues>
            5.7287883758544922e-01 -7.6560616493225098e-01</leafValues></_></weakClassifiers></_>
    <!-- stage 1 -->
    <_>
      <maxWeakCount>4</maxWeakCount>
      <stageThreshold>-1.5486451387405396e+00</stageThreshold>
      <weakClassifiers>
        <_>
          <internalNodes>
            0 -1 37 1.5734308958053589e-01</internalNodes>
          <leafValues>
            -6.3418805599212646e-01 9.5292830467224121e-01</leafValues></_>
        <_>
          <internalNodes>
            0 -1 64 1.0590003803372383e-02</internalNodes>
          <leafValues>
            -7.8346520662307739e-01 6.0121554136276245e-01</leafValues></_>
        <_>
          <internalNodes>
            0 -1 10 -4.9121916294097900e-02</internalNodes>
          <leafValues>
            5.9538811445236206e-01 -6.2963122129440308e-01</leafValues></_>
        <_>
          <internalNodes>
            0 -1 50 2.9874988831579685e-03</internalNodes>
          <leafValues>
            2.9198947548866272e-01 -8.8604146242141724e-01</leafValues></_></weakClassifiers></_>
    <!-- stage 2 -->
    <_>
      <maxWeakCount>4</maxWeakCount>
      <stageThreshold>-1.6943401098251343e-01</stageThreshold>
      <weakClassifiers>
        <_>
          <internalNodes>
            0 -1 32 1.5901809930801392e-01</internalNodes>
          <leafValues>
            -6.5510946512222290e-01 9.0320885181427002e-01</leafValues></_>
        <_>
          <internalNodes>
            0 -1 18 2.7300947904586792e-01</internalNodes>
          <leafValues>
            -2.1766081452369690e-01 9.1436159610748291e-01</leafValues></_>
        <_>
          <internalNodes>
            0 -1 60 2.7475920505821705e-03</internalNodes>
          <leafValues>
            4.0954574942588806e-01 -9.3188536167144775e-01</leafValues></_>
        <_>
          <internalNodes>
            0 -1 61 -2.2472396958619356e-03</internalNodes>
          <leafValues>
            -8.3823186159133911e-01 3.0417600274085999e-01</leafValues></_></weakClassifiers></_>
    <!-- stage 3 -->
    <_>
      <maxWeakCount>8</maxWeakCount>
      <stageThreshold>-1.0514494180679321e+00</stageThreshold>
      <weakClassifiers>
        <_>
          <internalNodes>
            0 -1 38 1.3307407498359680e-01</internalNodes>
          <leafValues>
            -3.6507937312126160e-01 9.3420237302780151e-01</leafValues></_>
        <_>
          <internalNodes>
            0 -1 69 -3.3200029283761978e-02</internalNodes>
          <leafValues>
            5.9785056114196777e-01 -6.0950607061386108e-01</leafValues></_>
        <_>
          <internalNodes>
            0 -1 87 -1.7057616263628006e-02</internalNodes>
          <leafValues>
            5.2262806892395020e-01 -4.7601947188377380e-01</leafValues></_>
        <_>
          <internalNodes>
            0 -1 44 4.1254130192101002e-03</internalNodes>
          <leafValues>
            2.7531480789184570e-01 -8.5600686073303223e-01</leafValues></_>
        <_>
          <internalNodes>
            0 -1 53 -1.8118326552212238e-03</internalNodes>
          <leafValues>
            -8.5570377111434937e-01 2.0686697959899902e-01</leafValues></_>
        <_>
          <internalNodes>
            0 -1 3 1.2611384503543377e-02</internalNodes>
          <leafValues>
            -3.7555137276649475e-01 5.7976341247558594e-01</leafValues></_>
        <_>
          <internalNodes>
            0 -1 63 2.1754563786089420e-03</internalNodes>
          <leafValues>
            1.6463400423526764e-01 -9.3970561027526855e-01</leafValues></_>
        <_>
          <internalNodes>
            0 -1 80 1.1192548554390669e-03</internalNodes>
          <leafValues>
            1.9181427359580994e-01 -7.5894522666931152e-01</leafValues></_></weakClassifiers></_>
    <!-- stage 4 -->
    <_>
      <maxWeakCount>8</maxWeakCount>
      <stageThreshold>-8.4262657165527344e-01</stageThreshold>
      <weakClassifiers>
        <_>
          <internalNodes>
            0 -1 29 3.4583300352096558e-01</internalNodes>
          <leafValues>
            -3.0555555224418640e-01 9.2421323060989380e-01</leafValues></_>
        <_>
          <internalNodes>
            0 -1 78 -1.5721309464424849e-03</internalNodes>
          <leafValues>
            4.6670386195182800e-01 -8.2720112800598145e-01</leafValues></_>
        <_>
          <internalNodes>
            0 -1 88 -1.2476302683353424e-02</internalNodes>
          <leafValues>
            4.6045339107513428e-01 -4.2911097407341003e-01</leafValues></_>
        <_>
          <internalNodes>
            0 -1 66 -1.4347529504448175e-03</internalNodes>
          <leafValues>
            -9.2059886455535889e-01 2.3604847490787506e-01</leafValues></_>
        <_>
          <internalNodes>
            0 -1 74 1.5998558374121785e-03</internalNodes>
          <leafValues>
            1.6410574316978455e-01 -8.5422986745834351e-01</leafValues></_>
        <_>
          <internalNodes>
            0 -1 70 -6.3411251176148653e-04</internalNodes>
          <leafValues>
            2.4903434514999390e-01 -6.1548954248428345e-01</leafValues></_>
        <_>
          <internalNodes>
            0 -1 9 -1.4377724379301071e-02</internalNodes>
          <leafValues>
            4.5801952481269836e-01 -4.1132441163063049e-01</leafValues></_>
        <_>
          <internalNodes>
            0 -1 23 -2.3658417165279388e-02</internalNodes>
          <leafValues>
            4.9053782224655151e-01 -4.1300749778747559e-01</leafValues></_></weakClassifiers></_>
    <!-- stage 5 -->
    <_>
      <maxWeakCount>7</maxWeakCount>
      <stageThreshold>-7.3788332939147949e-01</stageThreshold>
      <weakClassifiers>
        <_>
          <internalNodes>
            0 -1 20 2.7119106054306030e-01</internalNodes>
          <leafValues>
            -2.1216040849685669e-01 9.1454172134399414e-01</leafValues></_>
        <_>
          <internalNodes>
            0 -1 47 -1.5216156498354394e-05</internalNodes>
          <leafValues>
            4.0060865879058838e-01 -7.2118335962295532e-01</leafValues></_>
        <_>
          <internalNodes>
            0 -1 45 7.3186783120036125e-03</internalNodes>
          <leafValues>
            2.3008471727371216e-01 -8.4501302242279053e-01</leafValues></_>
        <_>
          <internalNodes>
            0 -1 58 -4.6187820844352245e-03</internalNodes>
          <leafValues>
            -8.7775439023971558e-01 2.0319359004497528e-01</leafValues></_>
        <_>
          <internalNodes>
            0 -1 4 1.0873054154217243e-02</internalNodes>
          <leafValues>
            -5.5921620130538940e-01 2.7051228284835815e-01</leafValues></_>
        <_>
          <internalNodes>
            0 -1 30 1.6861364711076021e-03</internalNodes>
          <leafValues>
            2.4039933085441589e-01 -6.2505125999450684e-01</leafValues></_>
        <_>
          <internalNodes>
            0 -1 68 -5.0240876153111458e-03</internalNodes>
          <leafValues>
            1.7381751537322998e-01 -7.9542374610900879e-01</leafValues></_></weakClassifiers></_>
    <!-- stage 6 -->
    <_>
      <maxWeakCount>6</maxWeakCount>
      <stageThreshold>-9.6284955739974976e-01</stageThreshold>
      <weakClassifiers>
        <_>
          <internalNodes>
            0 -1 83 5.7823299430310726e-03</internalNodes>
          <leafValues>
            -6.6831684112548828e-01 7.0306074619293213e-01</leafValues></_>
        <_>
          <internalNodes>
            0 -1 5 8.2396091893315315e-03</internalNodes>
          <leafValues>
            -5.5389428138732910e-01 5.3443437814712524e-01</leafValues></_>
        <_>
          <internalNodes>
            0 -1 24 3.4762156009674072e-01</internalNodes>
          <leafValues>
            -2.7697116136550903e-01 7.8808748722076416e-01</leafValues></_>
        <_>
          <internalNodes>
            0 -1 35 -9.0972315520048141e-03</internalNodes>
          <leafValues>
            5.5673032999038696e-01 -3.1444516777992249e-01</leafValues></_>
        <_>
          <internalNodes>
            0 -1 14 4.5920632779598236e-02</internalNodes>
          <leafValues>
            -2.5439250469207764e-01 6.5132516622543335e-01</leafValues></_>
        <_>
          <internalNodes>
            0 -1 86 -3.0650431290268898e-03</internalNodes>
          <leafValues>
            -8.5209363698959351e-01 2.3399488627910614e-01</leafValues></_></weakClassifiers></_>
    <!-- stage 7 -->
    <_>
      <maxWeakCount>8</maxWeakCount>
      <stageThreshold>-7.2135949134826660e-01</stageThreshold>
      <weakClassifiers>
        <_>
          <internalNodes>
            0 -1 89 1.1402316391468048e-02</internalNodes>
          <leafValues>
            -2.9916122555732727e-01 6.8607068061828613e-01</leafValues></_>
        <_>
          <internalNodes>
            0 -1 16 -5.5308607406914234e-03</internalNodes>
          <leafValues>
            5.5621552467346191e-01 -3.3725002408027649e-01</leafValues></_>
        <_>
          <internalNodes>
            0 -1 6 5.7547250762581825e-03</internalNodes>
          <leafValues>
            -3.0683290958404541e-01 6.7378282546997070e-01</leafValues></_>
        <_>
          <internalNodes>
            0 -1 57 2.3702150210738182e-03</internalNodes>
          <leafValues>
            1.9912900030612946e-01 -9.1353321075439453e-01</leafValues></_>
        <_>
          <internalNodes>
            0 -1 48 5.6479300837963820e-04</internalNodes>
          <leafValues>
            1.3233041763305664e-01 -7.2010594606399536e-01</leafValues></_>
        <_>
          <internalNodes>
            0 -1 55 4.7691140207462013e-04</internalNodes>
          <leafValues>
            1.7771002650260925e-01 -8.3572155237197876e-01</leafValues></_>
        <_>
          <internalNodes>
            0 -1 71 -1.4515237882733345e-02</internalNodes>
          <leafValues>
            5.3394007682800293e-01 -2.9014724493026733e-01</leafValues></_>
        <_>
          <internalNodes>
            0 -1 62 -2.7959861326962709e-03</internalNodes>
          <leafValues>
            1.6310861706733704e-01 -8.9655172824859619e-01</leafValues></_></weakClassifiers></_>
    <!-- stage 8 -->
    <_>
      <maxWeakCount>9</maxWeakCount>
      <stageThreshold>-1.1294101476669312e+00</stageThreshold>
      <weakClassifiers>
        <_>
          <internalNodes>
            0 -1 56 -1.9991658627986908e-03</internalNodes>
          <leafValues>
            -7.5588864088058472e-01 5.3438735008239746e-01</leafValues></_>
        <_>
          <internalNodes>
            0 -1 25 3.1026533246040344e-01</internalNodes>
          <leafValues>
            -3.5416981577873230e-01 6.1053526401519775e-01</leafValues></_>
        <_>
          <internalNodes>
            0 -1 54 -2.2552069276571274e-03</internalNodes>
          <leafValues>
            -9.0895199775695801e-01 2.0266973972320557e-01</leafValues></_>
        <_>
          <internalNodes>
            0 -1 75 -4.1928896680474281e-03</internalNodes>
          <leafValues>
            -9.0214240550994873e-01 1.5890382230281830e-01</leafValues></_>
        <_>
          <internalNodes>
            0 -1 90 -1.2385808862745762e-02</internalNodes>
          <leafValues>
            3.6441928148269653e-01 -4.4634675979614258e-01</leafValues></_>
        <_>
          <internalNodes>
            0 -1 51 8.0989152193069458e-03</internalNodes>
          <leafValues>
            2.1303249895572662e-01 -7.3484182357788086e-01</leafValues></_>
        <_>
          <internalNodes>
            0 -1 36 -1.6845403297338635e-04</internalNodes>
          <leafValues>
            2.4256977438926697e-01 -5.5040001869201660e-01</leafValues></_>
        <_>
          <internalNodes>
            0 -1 67 4.1692162631079555e-04</internalNodes>
          <leafValues>
            2.1617743372917175e-01 -6.9645887613296509e-01</leafValues></_>
        <_>
          <internalNodes>
            0 -1 72 -1.9386495114304125e-04</internalNodes>
          <leafValues>
            -7.1222108602523804e-01 1.8661159276962280e-01</leafValues></_></weakClassifiers></_>
    <!-- stage 9 -->
    <_>
      <maxWeakCount>12</maxWeakCount>
      <stageThreshold>-9.9738472700119019e-01</stageThreshold>
      <weakClassifiers>
        <_>
          <internalNodes>
            0 -1 33 2.8588247299194336e-01</internalNodes>
          <leafValues>
            -6.4231738448143005e-02 7.8140527009963989e-01</leafValues></_>
        <_>
          <internalNodes>
            0 -1 17 -2.6254872791469097e-03</internalNodes>
          <leafValues>
            4.7720742225646973e-01 -4.2003512382507324e-01</leafValues></_>
        <_>
          <internalNodes>
            0 -1 13 8.2109440118074417e-03</internalNodes>
          <leafValues>
            -2.9560574889183044e-01 4.9754092097282410e-01</leafValues></_>
        <_>
          <internalNodes>
            0 -1 0 -2.9804784059524536e-01</internalNodes>
          <leafValues>
            6.8119895458221436e-01 -2.4108543992042542e-01</leafValues></_>
        <_>
          <internalNodes>
            0 -1 92 -1.6852302476763725e-02</internalNodes>
          <leafValues>
            7.2156876325607300e-01 -1.6019496321678162e-01</leafValues></_>
        <_>
          <internalNodes>
            0 -1 79 -1.4380399079527706e-04</internalNodes>
          <leafValues>
            1.4764824509620667e-01 -8.4949564933776855e-01</leafValues></_>
        <_>
          <internalNodes>
            0 -1 82 -4.7952998429536819e-03</internalNodes>
          <leafValues>
            4.6908429265022278e-01 -2.6335683465003967e-01</leafValues></_>
        <_>
          <internalNodes>
            0 -1 73 -3.9302557706832886e-04</internalNodes>
          <leafValues>
            -7.0694673061370850e-01 1.5041705965995789e-01</leafValues></_>
        <_>
          <internalNodes>
            0 -1 1 1.5782436728477478e-01</internalNodes>
          <leafValues>
            -1.7397332191467285e-01 7.6555770635604858e-01</leafValues></_>
        <_>
          <internalNodes>
            0 -1 21 -8.8448630413040519e-04</internalNodes>
          <leafValues>
            3.8121488690376282e-01 -3.8404211401939392e-01</leafValues></_>
        <_>
          <internalNodes>
            0 -1 19 -4.4884651899337769e-02</internalNodes>
          <leafValues>
            5.9346109628677368e-01 -2.4804155528545380e-01</leafValues></_>
        <_>
          <internalNodes>
            0 -1 41 5.5338740348815918e-03</internalNodes>
          <leafValues>
            1.8985977768898010e-01 -7.9043847322463989e-01</leafValues></_></weakClassifiers></_>
    <!-- stage 10 -->
    <_>
      <maxWeakCount>12</maxWeakCount>
      <stageThreshold>-1.0247337818145752e+00</stageThreshold>
      <weakClassifiers>
        <_>
          <internalNodes>
            0 -1 12 2.8641512989997864e-01</internalNodes>
          <leafValues>
            -1.1760612577199936e-01 7.4871796369552612e-01</leafValues></_>
        <_>
          <internalNodes>
            0 -1 40 -1.4080110704526305e-03</internalNodes>
          <leafValues>
            -8.6670792102813721e-01 2.5932386517524719e-01</leafValues></_>
        <_>
          <internalNodes>
            0 -1 2 2.1311741322278976e-02</internalNodes>
          <leafValues>
            -3.2856276631355286e-01 4.9459284543991089e-01</leafValues></_>
        <_>
          <internalNodes>
            0 -1 76 4.5218813465908170e-04</internalNodes>
          <leafValues>
            2.5323885679244995e-01 -6.1088454723358154e-01</leafValues></_>
        <_>
          <internalNodes>
            0 -1 43 1.6214377246797085e-03</internalNodes>
          <leafValues>
            1.5782740712165833e-01 -8.7188971042633057e-01</leafValues></_>
        <_>
          <internalNodes>
            0 -1 39 -2.9406361281871796e-03</internalNodes>
          <leafValues>
            -8.6712676286697388e-01 1.0590967535972595e-01</leafValues></_>
        <_>
          <internalNodes>
            0 -1 49 -6.8694325163960457e-03</internalNodes>
          <leafValues>
            -7.2171086072921753e-01 1.4277696609497070e-01</leafValues></_>
        <_>
          <internalNodes>
            0 -1 31 1.0146420449018478e-02</internalNodes>
          <leafValues>
            2.0676098763942719e-01 -6.4731794595718384e-01</leafValues></_>
        <_>
          <internalNodes>
            0 -1 11 7.1547530591487885e-02</internalNodes>
          <leafValues>
            -2.5164079666137695e-01 6.9737130403518677e-01</leafValues></_>
        <_>
          <internalNodes>
            0 -1 65 -2.4901547003537416e-03</internalNodes>
          <leafValues>
            4.1578230261802673e-01 -3.6883580684661865e-01</leafValues></_>
        <_>
          <internalNodes>
            0 -1 84 -2.8812696691602468e-03</internalNodes>
          <leafValues>
            5.4484963417053223e-01 -2.1614526212215424e-01</leafValues></_>
        <_>
          <internalNodes>
            0 -1 22 -6.6135772503912449e-03</internalNodes>
          <leafValues>
            -8.5551327466964722e-01 1.7251588404178619e-01</leafValues></_></weakClassifiers></_>
    <!-- stage 11 -->
    <_>
      <maxWeakCount>12</maxWeakCount>
      <stageThreshold>-1.0314486026763916e+00</stageThreshold>
      <weakClassifiers>
        <_>
          <internalNodes>
            0 -1 28 -1.1128847836516798e-04</internalNodes>
          <leafValues>
            5.7677078247070313e-01 -4.3093922734260559e-01</leafValues></_>
        <_>
          <internalNodes>
            0 -1 91 8.9085036888718605e-03</internalNodes>
          <leafValues>
            -4.3671187758445740e-01 3.8784864544868469e-01</leafValues></_>
        <_>
          <internalNodes>
            0 -1 7 -1.6843345947563648e-03</internalNodes>
          <leafValues>
            2.6595002412796021e-01 -4.8657387495040894e-01</leafValues></_>
        <_>
          <internalNodes>
            0 -1 77 -2.4968020152300596e-03</internalNodes>
          <leafValues>
            -7.9059678316116333e-01 1.6676385700702667e-01</leafValues></_>
        <_>
          <internalNodes>
            0 -1 15 1.9683465361595154e-03</internalNodes>
          <leafValues>
            -2.6563504338264465e-01 4.8887729644775391e-01</leafValues></_>
        <_>
          <internalNodes>
            0 -1 26 2.4709338322281837e-03</internalNodes>
          <leafValues>
            -3.0321246385574341e-01 5.0219976902008057e-01</leafValues></_>
        <_>
          <internalNodes>
            0 -1 59 3.7758739199489355e-04</internalNodes>
          <leafValues>
            2.4556580185890198e-01 -7.1512645483016968e-01</leafValues></_>
        <_>
          <internalNodes>
            0 -1 81 -1.2100925669074059e-03</internalNodes>
          <leafValues>
            4.1646540164947510e-01 -3.1339195370674133e-01</leafValues></_>
        <_>
          <internalNodes>
            0 -1 52 -5.2436101250350475e-03</internalNodes>
          <leafValues>
            -7.4562913179397583e-01 2.0255045592784882e-01</leafValues></_>
        <_>
          <internalNodes>
            0 -1 85 5.4650328820571303e-05</internalNodes>
          <leafValues>
            -4.5840257406234741e-01 2.8102236986160278e-01</leafValues></_>
        <_>
          <internalNodes>
            0 -1 46 -1.1112545616924763e-03</internalNodes>
          <leafValues>
            -7.5452822446823120e-01 1.6275663673877716e-01</leafValues></_>
        <_>
          <internalNodes>
            0 -1 8 1.5639761462807655e-02</internalNodes>
          <leafValues>
            9.6007309854030609e-02 -7.7467483282089233e-01</leafValues></_></weakClassifiers></_></stages>
  <features>
    <_>
      <rects>
        <_>
          0 1 24 22 -1.</_>
        <_>
          8 1 8 22 3.</_></rects>
      <tilted>0</tilted></_>
    <_>
      <rects>
        <_>
          0 3 21 21 -1.</_>
        <_>
          7 3 7 21 3.</_></rects>
      <tilted>0</tilted></_>
    <_>
      <rects>
        <_>
          0 5 6 10 -1.</_>
        <_>
          0 5 3 5 2.</_>
        <_>
          3 10 3 5 2.</_></rects>
      <tilted>0</tilted></_>
    <_>
      <rects>
        <_>
          0 6 6 8 -1.</_>
        <_>
          0 6 3 4 2.</_>
        <_>
          3 10 3 4 2.</_></rects>
      <tilted>0</tilted></_>
    <_>
      <rects>
        <_>
          0 6 8 10 -1.</_>
        <_>
          0 6 4 5 2.</_>
        <_>
          4 11 4 5 2.</_></rects>
      <tilted>0</tilted></_>
    <_>
      <rects>
        <_>
          0 8 8 6 -1.</_>
        <_>
          0 8 4 3 2.</_>
        <_>
          4 11 4 3 2.</_></rects>
      <tilted>0</tilted></_>
    <_>
      <rects>
        <_>
          0 11 4 3 -1.</_>
        <_>
          2 11 2 3 2.</_></rects>
      <tilted>0</tilted></_>
    <_>
      <rects>
        <_>
          0 13 6 4 -1.</_>
        <_>
          0 13 3 2 2.</_>
        <_>
          3 15 3 2 2.</_></rects>
      <tilted>0</tilted></_>
    <_>
      <rects>
        <_>
          1 6 2 14 -1.</_>
        <_>
          1 13 2 7 2.</_></rects>
      <tilted>0</tilted></_>
    <_>
      <rects>
        <_>
          1 12 16 6 -1.</_>
        <_>
          1 14 16 2 3.</_></rects>
      <tilted>0</tilted></_>
    <_>
      <rects>
        <_>
          1 12 20 9 -1.</_>
        <_>
          1 15 20 3 3.</_></rects>
      <tilted>0</tilted></_>
    <_>
      <rects>
        <_>
          2 0 21 6 -1.</_>
        <_>
          9 0 7 6 3.</_></rects>
      <tilted>0</tilted></_>
    <_>
      <rects>
        <_>
          2 8 17 9 -1.</_>
        <_>
          2 11 17 3 3.</_></rects>
      <tilted>0</tilted></_>
    <_>
      <rects>
        <_>
          2 22 18 2 -1.</_>
        <_>
          8 22 6 2 3.</_></rects>
      <tilted>0</tilted></_>
    <_>
      <rects>
        <_>
          3 0 21 6 -1.</_>
        <_>
          10 0 7 6 3.</_></rects>
      <tilted>0</tilted></_>
    <_>
      <rects>
        <_>
          3 3 6 4 -1.</_>
        <_>
          3 3 3 2 2.</_>
        <_>
          6 5 3 2 2.</_></rects>
      <tilted>0</tilted></_>
    <_>
      <rects>
        <_>
          3 4 18 1 -1.</_>
        <_>
          9 4 6 1 3.</_></rects>
      <tilted>0</tilted></_>
    <_>
      <rects>
        <_>
          3 5 18 1 -1.</_>
        <_>
          9 5 6 1 3.</_></rects>
      <tilted>0</tilted></_>
    <_>
      <rects>
        <_>
          3 6 17 12 -1.</_>
        <_>
          3 10 17 4 3.</_></rects>
      <tilted>0</tilted></_>
    <_>
      <rects>
        <_>
          3 8 15 6 -1.</_>
        <_>
          3 10 15 2 3.</_></rects>
      <tilted>0</tilted></_>
    <_>
      <rects>
        <_>
          3 8 17 9 -1.</_>
        <_>
          3 11 17 3 3.</_></rects>
      <tilted>0</tilted></_>
    <_>
      <rects>
        <_>
          4 3 11 2 -1.</_>
        <_>
          4 4 11 1 2.</_></rects>
      <tilted>0</tilted></_>
    <_>
      <rects>
        <_>
          4 5 15 3 -1.</_>
        <_>
          4 6 15 1 3.</_></rects>
      <tilted>0</tilted></_>
    <_>
      <rects>
        <_>
          4 6 10 9 -1.</_>
        <_>
          4 9 10 3 3.</_></rects>
      <tilted>0</tilted></_>
    <_>
      <rects>
        <_>
          4 6 13 12 -1.</_>
        <_>
          4 10 13 4 3.</_></rects>
      <tilted>0</tilted></_>
    <_>
      <rects>
        <_>
          4 8 17 9 -1.</_>
        <_>
          4 11 17 3 3.</_></rects>
      <tilted>0</tilted></_>
    <_>
      <rects>
        <_>
          5 0 2 6 -1.</_>
        <_>
          5 3 2 3 2.</_></rects>
      <tilted>0</tilted></_>
    <_>
      <rects>
        <_>
          5 0 13 15 -1.</_>
        <_>
          5 5 13 5 3.</_></rects>
      <tilted>0</tilted></_>
    <_>
      <rects>
        <_>
          5 4 14 2 -1.</_>
        <_>
          5 5 14 1 2.</_></rects>
      <tilted>0</tilted></_>
    <_>
      <rects>
        <_>
          5 5 14 15 -1.</_>
        <_>
          5 10 14 5 3.</_></rects>
      <tilted>0</tilted></_>
    <_>
      <rects>
        <_>
          5 7 6 13 -1.</_>
        <_>
          7 7 2 13 3.</_></rects>
      <tilted>0</tilted></_>
    <_>
      <rects>
        <_>
          5 7 12 10 -1.</_>
        <_>
          11 7 6 10 2.</_></rects>
      <tilted>0</tilted></_>
    <_>
      <rects>
        <_>
          5 7 13 12 -1.</_>
        <_>
          5 11 13 4 3.</_></rects>
      <tilted>0</tilted></_>
    <_>
      <rects>
        <_>
          5 8 15 9 -1.</_>
        <_>
          5 11 15 3 3.</_></rects>
      <tilted>0</tilted></_>
    <_>
      <rects>
        <_>
          5 11 10 10 -1.</_>
        <_>
          5 16 10 5 2.</_></rects>
      <tilted>0</tilted></_>
    <_>
      <rects>
        <_>
          6 3 15 4 -1.</_>
        <_>
          11 3 5 4 3.</_></rects>
      <tilted>0</tilted></_>
    <_>
      <rects>
        <_>
          6 3 10 6 -1.</_>
        <_>
          6 5 10 2 3.</_></rects>
      <tilted>0</tilted></_>
    <_>
      <rects>
        <_>
          6 7 12 12 -1.</_>
        <_>
          6 11 12 4 3.</_></rects>
      <tilted>0</tilted></_>
    <_>
      <rects>
        <_>
          6 8 10 9 -1.</_>
        <_>
          6 11 10 3 3.</_></rects>
      <tilted>0</tilted></_>
    <_>
      <rects>
        <_>
          6 11 9 4 -1.</_>
        <_>
          9 11 3 4 3.</_></rects>
      <tilted>0</tilted></_>
    <_>
      <rects>
        <_>
          6 18 9 2 -1.</_>
        <_>
          6 19 9 1 2.</_></rects>
      <tilted>0</tilted></_>
    <_>
      <rects>
        <_>
          7 6 4 12 -1.</_>
        <_>
          7 6 2 6 2.</_>
        <_>
          9 12 2 6 2.</_></rects>
      <tilted>0</tilted></_>
    <_>
      <rects>
        <_>
          7 7 10 12 -1.</_>
        <_>
          7 11 10 4 3.</_></rects>
      <tilted>0</tilted></_>
    <_>
      <rects>
        <_>
          7 8 6 4 -1.</_>
        <_>
          9 8 2 4 3.</_></rects>
      <tilted>0</tilted></_>
    <_>
      <rects>
        <_>
          7 8 9 9 -1.</_>
        <_>
          10 8 3 9 3.</_></rects>
      <tilted>0</tilted></_>
    <_>
      <rects>
        <_>
          7 9 8 9 -1.</_>
        <_>
          11 9 4 9 2.</_></rects>
      <tilted>0</tilted></_>
    <_>
      <rects>
        <_>
          7 14 6 2 -1.</_>
        <_>
          9 14 2 2 3.</_></rects>
      <tilted>0</tilted></_>
    <_>
      <rects>
        <_>
          7 14 5 6 -1.</_>
        <_>
          7 16 5 2 3.</_></rects>
      <tilted>0</tilted></_>
    <_>
      <rects>
        <_>
          8 5 6 3 -1.</_>
        <_>
          8 6 6 1 3.</_></rects>
      <tilted>0</tilted></_>
    <_>
      <rects>
        <_>
          8 6 10 11 -1.</_>
        <_>
          13 6 5 11 2.</_></rects>
      <tilted>0</tilted></_>
    <_>
      <rects>
        <_>
          8 9 6 10 -1.</_>
        <_>
          10 9 2 10 3.</_></rects>
      <tilted>0</tilted></_>
    <_>
      <rects>
        <_>
          8 9 10 8 -1.</_>
        <_>
          13 9 5 8 2.</_></rects>
      <tilted>0</tilted></_>
    <_>
      <rects>
        <_>
          8 10 9 8 -1.</_>
        <_>
          11 10 3 8 3.</_></rects>
      <tilted>0</tilted></_>
    <_>
      <rects>
        <_>
          8 11 6 5 -1.</_>
        <_>
          10 11 2 5 3.</_></rects>
      <tilted>0</tilted></_>
    <_>
      <rects>
        <_>
          8 13 9 2 -1.</_>
        <_>
          11 13 3 2 3.</_></rects>
      <tilted>0</tilted></_>
    <_>
      <rects>
        <_>
          9 6 6 2 -1.</_>
        <_>
          9 7 6 1 2.</_></rects>
      <tilted>0</tilted></_>
    <_>
      <rects>
        <_>
          9 7 6 4 -1.</_>
        <_>
          11 7 2 4 3.</_></rects>
      <tilted>0</tilted></_>
    <_>
      <rects>
        <_>
          9 7 6 7 -1.</_>
        <_>
          11 7 2 7 3.</_></rects>
      <tilted>0</tilted></_>
    <_>
      <rects>
        <_>
          9 7 6 10 -1.</_>
        <_>
          12 7 3 10 2.</_></rects>
      <tilted>0</tilted></_>
    <_>
      <rects>
        <_>
          9 8 4 1 -1.</_>
        <_>
          11 8 2 1 2.</_></rects>
      <tilted>0</tilted></_>
    <_>
      <rects>
        <_>
          9 9 6 7 -1.</_>
        <_>
          11 9 2 7 3.</_></rects>
      <tilted>0</tilted></_>
    <_>
      <rects>
        <_>
          9 9 6 8 -1.</_>
        <_>
          11 9 2 8 3.</_></rects>
      <tilted>0</tilted></_>
    <_>
      <rects>
        <_>
          9 10 1 12 -1.</_>
        <_>
          9 16 1 6 2.</_></rects>
      <tilted>0</tilted></_>
    <_>
      <rects>
        <_>
          9 13 6 4 -1.</_>
        <_>
          11 13 2 4 3.</_></rects>
      <tilted>0</tilted></_>
    <_>
      <rects>
        <_>
          10 4 4 12 -1.</_>
        <_>
          10 10 4 6 2.</_></rects>
      <tilted>0</tilted></_>
    <_>
      <rects>
        <_>
          10 5 12 3 -1.</_>
        <_>
          14 5 4 3 3.</_></rects>
      <tilted>0</tilted></_>
    <_>
      <rects>
        <_>
          10 7 2 11 -1.</_>
        <_>
          11 7 1 11 2.</_></rects>
      <tilted>0</tilted></_>
    <_>
      <rects>
        <_>
          10 7 3 2 -1.</_>
        <_>
          10 8 3 1 2.</_></rects>
      <tilted>0</tilted></_>
    <_>
      <rects>
        <_>
          10 9 2 14 -1.</_>
        <_>
          10 16 2 7 2.</_></rects>
      <tilted>0</tilted></_>
    <_>
      <rects>
        <_>
          10 12 6 12 -1.</_>
        <_>
          10 16 6 4 3.</_></rects>
      <tilted>0</tilted></_>
    <_>
      <rects>
        <_>
          10 15 2 9 -1.</_>
        <_>
          10 18 2 3 3.</_></rects>
      <tilted>0</tilted></_>
    <_>
      <rects>
        <_>
          10 21 14 3 -1.</_>
        <_>
          17 21 7 3 2.</_></rects>
      <tilted>0</tilted></_>
    <_>
      <rects>
        <_>
          11 7 4 1 -1.</_>
        <_>
          13 7 2 1 2.</_></rects>
      <tilted>0</tilted></_>
    <_>
      <rects>
        <_>
          11 7 2 2 -1.</_>
        <_>
          11 8 2 1 2.</_></rects>
      <tilted>0</tilted></_>
    <_>
      <rects>
        <_>
          11 8 6 4 -1.</_>
        <_>
          13 8 2 4 3.</_></rects>
      <tilted>0</tilted></_>
    <_>
      <rects>
        <_>
          11 9 6 9 -1.</_>
        <_>
          14 9 3 9 2.</_></rects>
      <tilted>0</tilted></_>
    <_>
      <rects>
        <_>
          11 18 5 3 -1.</_>
        <_>
          11 19 5 1 3.</_></rects>
      <tilted>0</tilted></_>
    <_>
      <rects>
        <_>
          12 2 2 18 -1.</_>
        <_>
          12 11 2 9 2.</_></rects>
      <tilted>0</tilted></_>
    <_>
      <rects>
        <_>
          12 4 1 9 -1.</_>
        <_>
          12 7 1 3 3.</_></rects>
      <tilted>0</tilted></_>
    <_>
      <rects>
        <_>
          12 6 5 6 -1.</_>
        <_>
          12 8 5 2 3.</_></rects>
      <tilted>0</tilted></_>
    <_>
      <rects>
        <_>
          13 6 3 9 -1.</_>
        <_>
          14 6 1 9 3.</_></rects>
      <tilted>0</tilted></_>
    <_>
      <rects>
        <_>
          14 2 4 4 -1.</_>
        <_>
          14 2 2 2 2.</_>
        <_>
          16 4 2 2 2.</_></rects>
      <tilted>0</tilted></_>
    <_>
      <rects>
        <_>
          14 5 9 3 -1.</_>
        <_>
          17 5 3 3 3.</_></rects>
      <tilted>0</tilted></_>
    <_>
      <rects>
        <_>
          14 12 10 6 -1.</_>
        <_>
          14 12 5 3 2.</_>
        <_>
          19 15 5 3 2.</_></rects>
      <tilted>0</tilted></_>
    <_>
      <rects>
        <_>
          15 2 6 4 -1.</_>
        <_>
          15 2 3 2 2.</_>
        <_>
          18 4 3 2 2.</_></rects>
      <tilted>0</tilted></_>
    <_>
      <rects>
        <_>
          15 4 2 17 -1.</_>
        <_>
          16 4 1 17 2.</_></rects>
      <tilted>0</tilted></_>
    <_>
      <rects>
        <_>
          15 4 2 14 -1.</_>
        <_>
          15 11 2 7 2.</_></rects>
      <tilted>0</tilted></_>
    <_>
      <rects>
        <_>
          16 5 8 10 -1.</_>
        <_>
          16 5 4 5 2.</_>
        <_>
          20 10 4 5 2.</_></rects>
      <tilted>0</tilted></_>
    <_>
      <rects>
        <_>
          16 8 8 6 -1.</_>
        <_>
          16 8 4 3 2.</_>
        <_>
          20 11 4 3 2.</_></rects>
      <tilted>0</tilted></_>
    <_>
      <rects>
        <_>
          16 12 8 6 -1.</_>
        <_>
          16 12 4 3 2.</_>
        <_>
          20 15 4 3 2.</_></rects>
      <tilted>0</tilted></_>
    <_>
      <rects>
        <_>
          18 5 6 10 -1.</_>
        <_>
          18 5 3 5 2.</_>
        <_>
          21 10 3 5 2.</_></rects>
      <tilted>0</tilted></_>
    <_>
      <rects>
        <_>
          18 11 6 8 -1.</_>
        <_>
          18 11 3 4 2.</_>
        <_>
          21 15 3 4 2.</_></rects>
      <tilted>0</tilted></_>
    <_>
      <rects>
        <_>
          20 10 4 14 -1.</_>
        <_>
          22 10 2 14 2.</_></rects>
      <tilted>0</tilted></_></features></cascade>
</opencv_storage>
